{
  "reg_normal_theta": [
    5.106999347114661,
    1.9792980623980825,
    2.622402257075747e-05,
    13.51620282711227,
    -15.433683372604971,
    41.21864100672335,
    -10.505599745440033,
    -8.474819410093597,
    -13.743546350835098,
    -8.654608639680701,
    -14.299114258703977,
    27.37339163604639,
    54.46431387413615,
    19.14864073098247,
    -14.406238238638368,
    -1.6014883021818156,
    -5.044114472034767,
    -23.708622564083516,
    -6.464623221821845,
    -7.276285538733257,
    4.74501056816686,
    -21.32544667039137,
    -4.166725584308023,
    -0.2542814282523099,
    12.997091299221234,
    -15.923190916878212,
    47.78816553409967,
    0.4514639535026056,
    -7.161277464775065,
    -5.246233878196403,
    -14.493227376246711,
    -7.941157409700173,
    26.19379364202714,
    1.1688248788795632,
    12.081087819248625,
    -8.744309577229954,
    0.9608047506135957,
    -1.2830671531368054,
    -11.860990434416927,
    -3.458999419271122,
    -12.861750727614425,
    -0.30431917623474064,
    -8.298657101118257,
    -0.7893552332990519,
    1.8323074801741273,
    5.50268956269367,
    -16.177717366417,
    -21.689825401278338,
    3.5772592762939572,
    2.4142519667872135,
    4.023003815533397,
    4.037134850485936,
    1.8721190694187233,
    6.591162998998943,
    12.488582828366834,
    5.121906829947141,
    3.337677318447797,
    7.922104379739289,
    10.164562919767516,
    2.816211005334253,
    3.119061410157322,
    -7.632754508318468,
    -6.53438046293106,
    -6.204506328732256,
    -11.942890952128616,
    2.3013513482647188,
    26.75444051367785,
    -39.4108344637726,
    7.430272589718111,
    44.69287417751336,
    -34.35975653180347
  ],
  "reg_gd_weights": [
    NaN,
    NaN,
    NaN,
    NaN,
    NaN,
    NaN,
    NaN,
    NaN,
    NaN,
    NaN,
    NaN,
    NaN,
    NaN,
    NaN,
    NaN,
    NaN,
    NaN,
    NaN,
    NaN,
    NaN,
    NaN,
    NaN,
    NaN,
    NaN,
    NaN,
    NaN,
    NaN,
    NaN,
    NaN,
    NaN,
    NaN,
    NaN,
    NaN,
    NaN,
    NaN,
    NaN,
    NaN,
    NaN,
    NaN,
    NaN,
    NaN,
    NaN,
    NaN,
    NaN,
    NaN,
    NaN,
    NaN,
    NaN,
    NaN,
    NaN,
    NaN,
    NaN,
    NaN,
    NaN,
    NaN,
    NaN,
    NaN,
    NaN,
    NaN,
    NaN,
    NaN,
    NaN,
    NaN,
    NaN,
    NaN,
    NaN,
    NaN,
    NaN,
    NaN,
    NaN
  ],
  "reg_gd_bias": NaN,
  "logreg_weights": [
    130.5762896685084,
    16.0182829578037,
    0.37541978814558247,
    0.21511178481226967,
    0.13006601314696029,
    0.045043483450206145,
    -1.1525446025390067,
    0.0007544984650452707,
    0.26564083786885057,
    0.1314181621345274,
    0.2869364360082443,
    0.4922541548272378,
    0.5960450621268134,
    -0.4292151070960917,
    0.39789886374065936,
    0.21432008230624297,
    -0.10173186053833622,
    0.21420067105726814,
    1.5458464726926648,
    3.312024498170161,
    -0.11166562285173176,
    -0.21178995006804452,
    4.605627831001979,
    0.35640476126864856,
    0.09387014986934646,
    0.13597319679189762,
    0.2444464528875184,
    -0.5856351189945622,
    0.047584585257573184,
    0.10635690581271537,
    0.13083133510144082,
    0.35494510460499545,
    0.284190144556452,
    0.3525996385223506,
    -0.02096181061180054,
    0.47587788312456997,
    0.1980246261055714,
    0.029039019864840795,
    0.22673318023719144,
    1.1117945714966708,
    3.1378710217444556,
    0.006361432773437505,
    -0.11457250281854216,
    4.2499269192667315,
    1.3464974539633194,
    0.14119958656707846,
    0.19992945834161605,
    0.9072186626983582,
    0.8318904343445677,
    0.8861150521830108,
    0.9370222284464543,
    0.9178208504412483,
    0.8940514036212722,
    0.6330279916461081,
    0.6541325667014511,
    0.6433203327103119,
    0.7330632704052007,
    0.5297397485013166,
    0.5497498896358765,
    0.578187092013325,
    0.13000678443042216,
    0.13999542462539094,
    0.04998645631171966,
    0.08774261457417482,
    -0.9690358053007229,
    14.941882113982402,
    -0.05347494157135137,
    -0.0008578836806694419,
    0.049710461607922814,
    -4.1155982534768025
  ],
  "logreg_bias": 27.594892846103576,
  "feature_names": [
    "dep_hour",
    "sched_dur_min",
    "DEPSTN_ALG",
    "DEPSTN_BRU",
    "DEPSTN_CDG",
    "DEPSTN_CMN",
    "DEPSTN_DJE",
    "DEPSTN_FCO",
    "DEPSTN_FRA",
    "DEPSTN_GVA",
    "DEPSTN_IST",
    "DEPSTN_JED",
    "DEPSTN_LYS",
    "DEPSTN_MIR",
    "DEPSTN_MRS",
    "DEPSTN_MXP",
    "DEPSTN_NBE",
    "DEPSTN_NCE",
    "DEPSTN_ORY",
    "DEPSTN_OTHER",
    "DEPSTN_SFA",
    "DEPSTN_TOE",
    "DEPSTN_TUN",
    "ARRSTN_ALG",
    "ARRSTN_BRU",
    "ARRSTN_CDG",
    "ARRSTN_CMN",
    "ARRSTN_DJE",
    "ARRSTN_FCO",
    "ARRSTN_FRA",
    "ARRSTN_GVA",
    "ARRSTN_IST",
    "ARRSTN_JED",
    "ARRSTN_LYS",
    "ARRSTN_MIR",
    "ARRSTN_MRS",
    "ARRSTN_MXP",
    "ARRSTN_NBE",
    "ARRSTN_NCE",
    "ARRSTN_ORY",
    "ARRSTN_OTHER",
    "ARRSTN_SFA",
    "ARRSTN_TOE",
    "ARRSTN_TUN",
    "AC_OTHER",
    "AC_TU 31BIMO",
    "AC_TU 31BIMQ",
    "AC_TU 320IMR",
    "AC_TU 320IMS",
    "AC_TU 320IMT",
    "AC_TU 320IMU",
    "AC_TU 320IMV",
    "AC_TU 320IMW",
    "AC_TU 32AIMD",
    "AC_TU 32AIMF",
    "AC_TU 32AIMG",
    "AC_TU 32AIMH",
    "AC_TU 32AIML",
    "AC_TU 32AIMN",
    "AC_TU 32AIMP",
    "AC_TU 736IOL",
    "AC_TU 736ION",
    "AC_TU 736IOQ",
    "AC_TU 736IOR",
    "AC_TU CR9ISA",
    "STATUS_ATA",
    "STATUS_DEL",
    "STATUS_DEP",
    "STATUS_RTR",
    "STATUS_SCH"
  ]
}